<?xml version="1.0"?>
<opencv_storage>
<cascade>
  <stageType>BOOST</stageType>
  <featureType>HAAR</featureType>
  <height>32</height>
  <width>32</width>
  <stageParams>
    <boostType>GAB</boostType>
    <minHitRate>9.9500000476837158e-01</minHitRate>
    <maxFalseAlarm>5.0000000000000000e-01</maxFalseAlarm>
    <weightTrimRate>9.4999999999999996e-01</weightTrimRate>
    <maxDepth>1</maxDepth>
    <maxWeakCount>100</maxWeakCount></stageParams>
  <featureParams>
    <maxCatCount>0</maxCatCount>
    <featSize>1</featSize>
    <mode>BASIC</mode></featureParams>
  <stageNum>20</stageNum>
  <stages>
    <!-- stage 0 -->
    <_>
      <maxWeakCount>2</maxWeakCount>
      <stageThreshold>1.0935616493225098e-01</stageThreshold>
      <weakClassifiers>
        <_>
          <internalNodes>
            0 -1 28 -6.2526743859052658e-03</internalNodes>
          <leafValues>
            9.6024847030639648e-01 -7.5280898809432983e-01</leafValues></_>
        <_>
          <internalNodes>
            0 -1 20 3.6487807519733906e-03</internalNodes>
          <leafValues>
            -8.5089230537414551e-01 9.4277095794677734e-01</leafValues></_></weakClassifiers></_>
    <!-- stage 1 -->
    <_>
      <maxWeakCount>3</maxWeakCount>
      <stageThreshold>8.5003787279129028e-01</stageThreshold>
      <weakClassifiers>
        <_>
          <internalNodes>
            0 -1 8 2.4473872035741806e-03</internalNodes>
          <leafValues>
            -8.6301368474960327e-01 9.3666261434555054e-01</leafValues></_>
        <_>
          <internalNodes>
            0 -1 10 9.7794495522975922e-03</internalNodes>
          <leafValues>
            -8.3052664995193481e-01 8.8881140947341919e-01</leafValues></_>
        <_>
          <internalNodes>
            0 -1 40 -3.1837574206292629e-03</internalNodes>
          <leafValues>
            8.2424014806747437e-01 -8.5880321264266968e-01</leafValues></_></weakClassifiers></_>
    <!-- stage 2 -->
    <_>
      <maxWeakCount>3</maxWeakCount>
      <stageThreshold>7.2295266389846802e-01</stageThreshold>
      <weakClassifiers>
        <_>
          <internalNodes>
            0 -1 7 5.2183488151058555e-04</internalNodes>
          <leafValues>
            -8.5714286565780640e-01 8.9976131916046143e-01</leafValues></_>
        <_>
          <internalNodes>
            0 -1 39 4.5105046592652798e-03</internalNodes>
          <leafValues>
            -8.3313411474227905e-01 8.4591501951217651e-01</leafValues></_>
        <_>
          <internalNodes>
            0 -1 21 1.3842616230249405e-02</internalNodes>
          <leafValues>
            -7.6253747940063477e-01 7.3418045043945312e-01</leafValues></_></weakClassifiers></_>
    <!-- stage 3 -->
    <_>
      <maxWeakCount>1</maxWeakCount>
      <stageThreshold>9.0226459503173828e-01</stageThreshold>
      <weakClassifiers>
        <_>
          <internalNodes>
            0 -1 33 -2.0331004634499550e-04</internalNodes>
          <leafValues>
            -9.2727273702621460e-01 9.0226459503173828e-01</leafValues></_></weakClassifiers></_>
    <!-- stage 4 -->
    <_>
      <maxWeakCount>2</maxWeakCount>
      <stageThreshold>1.3188812136650085e-01</stageThreshold>
      <weakClassifiers>
        <_>
          <internalNodes>
            0 -1 13 3.3148480579257011e-03</internalNodes>
          <leafValues>
            -6.4102566242218018e-01 9.2647057771682739e-01</leafValues></_>
        <_>
          <internalNodes>
            0 -1 47 -1.0691736824810505e-03</internalNodes>
          <leafValues>
            -9.7639864683151245e-01 7.7291375398635864e-01</leafValues></_></weakClassifiers></_>
    <!-- stage 5 -->
    <_>
      <maxWeakCount>3</maxWeakCount>
      <stageThreshold>-5.1197224855422974e-01</stageThreshold>
      <weakClassifiers>
        <_>
          <internalNodes>
            0 -1 49 1.4939247630536556e-03</internalNodes>
          <leafValues>
            9.3398535251617432e-01 -7.6315790414810181e-01</leafValues></_>
        <_>
          <internalNodes>
            0 -1 19 3.7106599193066359e-03</internalNodes>
          <leafValues>
            -6.4522016048431396e-01 8.8121634721755981e-01</leafValues></_>
        <_>
          <internalNodes>
            0 -1 34 -2.6258847210556269e-03</internalNodes>
          <leafValues>
            7.8610163927078247e-01 -8.0073744058609009e-01</leafValues></_></weakClassifiers></_>
    <!-- stage 6 -->
    <_>
      <maxWeakCount>3</maxWeakCount>
      <stageThreshold>-5.8648538589477539e-01</stageThreshold>
      <weakClassifiers>
        <_>
          <internalNodes>
            0 -1 26 3.6718854680657387e-03</internalNodes>
          <leafValues>
            -6.6197180747985840e-01 9.1494530439376831e-01</leafValues></_>
        <_>
          <internalNodes>
            0 -1 4 1.7392305890098214e-03</internalNodes>
          <leafValues>
            -5.9546828269958496e-01 8.6537581682205200e-01</leafValues></_>
        <_>
          <internalNodes>
            0 -1 27 3.0111772939562798e-03</internalNodes>
          <leafValues>
            -9.4845771789550781e-01 6.7095470428466797e-01</leafValues></_></weakClassifiers></_>
    <!-- stage 7 -->
    <_>
      <maxWeakCount>1</maxWeakCount>
      <stageThreshold>9.0476191043853760e-01</stageThreshold>
      <weakClassifiers>
        <_>
          <internalNodes>
            0 -1 14 1.6450486145913601e-03</internalNodes>
          <leafValues>
            -1. 9.0476191043853760e-01</leafValues></_></weakClassifiers></_>
    <!-- stage 8 -->
    <_>
      <maxWeakCount>1</maxWeakCount>
      <stageThreshold>9.2076832056045532e-01</stageThreshold>
      <weakClassifiers>
        <_>
          <internalNodes>
            0 -1 12 4.4340444728732109e-03</internalNodes>
          <leafValues>
            9.2076832056045532e-01 -1.</leafValues></_></weakClassifiers></_>
    <!-- stage 9 -->
    <_>
      <maxWeakCount>1</maxWeakCount>
      <stageThreshold>8.9573460817337036e-01</stageThreshold>
      <weakClassifiers>
        <_>
          <internalNodes>
            0 -1 38 -1.6212742775678635e-03</internalNodes>
          <leafValues>
            -1. 8.9573460817337036e-01</leafValues></_></weakClassifiers></_>
    <!-- stage 10 -->
    <_>
      <maxWeakCount>1</maxWeakCount>
      <stageThreshold>8.9774078130722046e-01</stageThreshold>
      <weakClassifiers>
        <_>
          <internalNodes>
            0 -1 29 3.7926591467112303e-03</internalNodes>
          <leafValues>
            8.9774078130722046e-01 -9.2452830076217651e-01</leafValues></_></weakClassifiers></_>
    <!-- stage 11 -->
    <_>
      <maxWeakCount>3</maxWeakCount>
      <stageThreshold>-4.5366457104682922e-01</stageThreshold>
      <weakClassifiers>
        <_>
          <internalNodes>
            0 -1 18 1.1675277492031455e-03</internalNodes>
          <leafValues>
            -8.2051283121109009e-01 9.4362747669219971e-01</leafValues></_>
        <_>
          <internalNodes>
            0 -1 44 -9.5084356144070625e-04</internalNodes>
          <leafValues>
            -8.5178977251052856e-01 7.8965139389038086e-01</leafValues></_>
        <_>
          <internalNodes>
            0 -1 51 -1.0601487010717392e-03</internalNodes>
          <leafValues>
            8.9795273542404175e-01 -5.4550224542617798e-01</leafValues></_></weakClassifiers></_>
    <!-- stage 12 -->
    <_>
      <maxWeakCount>3</maxWeakCount>
      <stageThreshold>8.3163297176361084e-01</stageThreshold>
      <weakClassifiers>
        <_>
          <internalNodes>
            0 -1 25 -1.0616895742714405e-02</internalNodes>
          <leafValues>
            -7.0149254798889160e-01 9.1051995754241943e-01</leafValues></_>
        <_>
          <internalNodes>
            0 -1 23 9.0415903832763433e-04</internalNodes>
          <leafValues>
            8.2308775186538696e-01 -7.0012247562408447e-01</leafValues></_>
        <_>
          <internalNodes>
            0 -1 6 -1.1665767058730125e-02</internalNodes>
          <leafValues>
            7.1003776788711548e-01 -7.9410052299499512e-01</leafValues></_></weakClassifiers></_>
    <!-- stage 13 -->
    <_>
      <maxWeakCount>4</maxWeakCount>
      <stageThreshold>1.2232740223407745e-01</stageThreshold>
      <weakClassifiers>
        <_>
          <internalNodes>
            0 -1 22 1.3172132894396782e-03</internalNodes>
          <leafValues>
            -8.4313726425170898e-01 8.8849347829818726e-01</leafValues></_>
        <_>
          <internalNodes>
            0 -1 16 9.8113913554698229e-04</internalNodes>
          <leafValues>
            -7.5220656394958496e-01 7.9612267017364502e-01</leafValues></_>
        <_>
          <internalNodes>
            0 -1 46 9.1654533753171563e-04</internalNodes>
          <leafValues>
            -6.6354382038116455e-01 7.8873383998870850e-01</leafValues></_>
        <_>
          <internalNodes>
            0 -1 2 1.6451284289360046e-02</internalNodes>
          <leafValues>
            -6.1939185857772827e-01 6.7596250772476196e-01</leafValues></_></weakClassifiers></_>
    <!-- stage 14 -->
    <_>
      <maxWeakCount>3</maxWeakCount>
      <stageThreshold>5.8556801080703735e-01</stageThreshold>
      <weakClassifiers>
        <_>
          <internalNodes>
            0 -1 32 1.0005794465541840e-03</internalNodes>
          <leafValues>
            8.9272946119308472e-01 -7.8181821107864380e-01</leafValues></_>
        <_>
          <internalNodes>
            0 -1 24 7.9242966603487730e-04</internalNodes>
          <leafValues>
            7.6657152175903320e-01 -6.9558441638946533e-01</leafValues></_>
        <_>
          <internalNodes>
            0 -1 9 7.9020869452506304e-04</internalNodes>
          <leafValues>
            -8.2279855012893677e-01 6.0081470012664795e-01</leafValues></_></weakClassifiers></_>
    <!-- stage 15 -->
    <_>
      <maxWeakCount>4</maxWeakCount>
      <stageThreshold>1.8329279124736786e-01</stageThreshold>
      <weakClassifiers>
        <_>
          <internalNodes>
            0 -1 50 -2.5657829828560352e-03</internalNodes>
          <leafValues>
            -8.0769228935241699e-01 8.8836103677749634e-01</leafValues></_>
        <_>
          <internalNodes>
            0 -1 15 1.9382520113140345e-03</internalNodes>
          <leafValues>
            -7.4879413843154907e-01 7.8329098224639893e-01</leafValues></_>
        <_>
          <internalNodes>
            0 -1 45 2.3136247182264924e-04</internalNodes>
          <leafValues>
            -6.6908711194992065e-01 7.5380486249923706e-01</leafValues></_>
        <_>
          <internalNodes>
            0 -1 3 -2.4252349976450205e-03</internalNodes>
          <leafValues>
            8.2545608282089233e-01 -5.4611074924468994e-01</leafValues></_></weakClassifiers></_>
    <!-- stage 16 -->
    <_>
      <maxWeakCount>3</maxWeakCount>
      <stageThreshold>-5.4699689149856567e-01</stageThreshold>
      <weakClassifiers>
        <_>
          <internalNodes>
            0 -1 17 1.2525469064712524e-03</internalNodes>
          <leafValues>
            -7.7419352531433105e-01 9.0625000000000000e-01</leafValues></_>
        <_>
          <internalNodes>
            0 -1 37 -1.3607818400487304e-03</internalNodes>
          <leafValues>
            -8.8400858640670776e-01 7.3901438713073730e-01</leafValues></_>
        <_>
          <internalNodes>
            0 -1 52 -6.4777187071740627e-04</internalNodes>
          <leafValues>
            8.1393343210220337e-01 -5.6923830509185791e-01</leafValues></_></weakClassifiers></_>
    <!-- stage 17 -->
    <_>
      <maxWeakCount>4</maxWeakCount>
      <stageThreshold>2.1466159820556641e-01</stageThreshold>
      <weakClassifiers>
        <_>
          <internalNodes>
            0 -1 41 -8.4169926121830940e-03</internalNodes>
          <leafValues>
            -8.7755101919174194e-01 8.8639050722122192e-01</leafValues></_>
        <_>
          <internalNodes>
            0 -1 11 1.4505384024232626e-04</internalNodes>
          <leafValues>
            7.5228577852249146e-01 -7.3086029291152954e-01</leafValues></_>
        <_>
          <internalNodes>
            0 -1 35 -2.1596248261630535e-03</internalNodes>
          <leafValues>
            7.2391092777252197e-01 -5.9362435340881348e-01</leafValues></_>
        <_>
          <internalNodes>
            0 -1 5 8.2811433821916580e-03</internalNodes>
          <leafValues>
            -6.6477954387664795e-01 7.3605930805206299e-01</leafValues></_></weakClassifiers></_>
    <!-- stage 18 -->
    <_>
      <maxWeakCount>5</maxWeakCount>
      <stageThreshold>-2.5548508763313293e-01</stageThreshold>
      <weakClassifiers>
        <_>
          <internalNodes>
            0 -1 1 3.6195502616465092e-03</internalNodes>
          <leafValues>
            8.8165682554244995e-01 -7.9591834545135498e-01</leafValues></_>
        <_>
          <internalNodes>
            0 -1 48 -2.2321168216876686e-05</internalNodes>
          <leafValues>
            -6.0205829143524170e-01 7.9124593734741211e-01</leafValues></_>
        <_>
          <internalNodes>
            0 -1 43 -1.3320823200047016e-03</internalNodes>
          <leafValues>
            7.2348469495773315e-01 -6.2043404579162598e-01</leafValues></_>
        <_>
          <internalNodes>
            0 -1 36 1.9646557047963142e-03</internalNodes>
          <leafValues>
            -4.1839465498924255e-01 9.6368652582168579e-01</leafValues></_>
        <_>
          <internalNodes>
            0 -1 42 2.1833162754774094e-03</internalNodes>
          <leafValues>
            5.1512587070465088e-01 -8.8955914974212646e-01</leafValues></_></weakClassifiers></_>
    <!-- stage 19 -->
    <_>
      <maxWeakCount>3</maxWeakCount>
      <stageThreshold>7.2740387916564941e-01</stageThreshold>
      <weakClassifiers>
        <_>
          <internalNodes>
            0 -1 30 -3.2001244835555553e-03</internalNodes>
          <leafValues>
            -6.9999998807907104e-01 8.9688247442245483e-01</leafValues></_>
        <_>
          <internalNodes>
            0 -1 31 -4.8721479251980782e-03</internalNodes>
          <leafValues>
            7.4670374393463135e-01 -8.9625602960586548e-01</leafValues></_>
        <_>
          <internalNodes>
            0 -1 0 -1.1538024991750717e-03</internalNodes>
          <leafValues>
            7.2677743434906006e-01 -6.4407002925872803e-01</leafValues></_></weakClassifiers></_></stages>
  <features>
    <_>
      <rects>
        <_>
          2 15 9 1 -1.</_>
        <_>
          5 15 3 1 3.</_></rects>
      <tilted>0</tilted></_>
    <_>
      <rects>
        <_>
          4 13 4 6 -1.</_>
        <_>
          4 16 4 3 2.</_></rects>
      <tilted>0</tilted></_>
    <_>
      <rects>
        <_>
          4 13 12 6 -1.</_>
        <_>
          8 13 4 6 3.</_></rects>
      <tilted>0</tilted></_>
    <_>
      <rects>
        <_>
          5 11 3 11 -1.</_>
        <_>
          6 11 1 11 3.</_></rects>
      <tilted>0</tilted></_>
    <_>
      <rects>
        <_>
          5 14 6 3 -1.</_>
        <_>
          8 14 3 3 2.</_></rects>
      <tilted>0</tilted></_>
    <_>
      <rects>
        <_>
          6 9 4 16 -1.</_>
        <_>
          8 9 2 16 2.</_></rects>
      <tilted>0</tilted></_>
    <_>
      <rects>
        <_>
          7 8 12 10 -1.</_>
        <_>
          7 8 6 5 2.</_>
        <_>
          13 13 6 5 2.</_></rects>
      <tilted>0</tilted></_>
    <_>
      <rects>
        <_>
          7 13 5 9 -1.</_>
        <_>
          7 16 5 3 3.</_></rects>
      <tilted>0</tilted></_>
    <_>
      <rects>
        <_>
          7 23 18 1 -1.</_>
        <_>
          13 23 6 1 3.</_></rects>
      <tilted>0</tilted></_>
    <_>
      <rects>
        <_>
          8 8 12 4 -1.</_>
        <_>
          12 8 4 4 3.</_></rects>
      <tilted>0</tilted></_>
    <_>
      <rects>
        <_>
          8 8 18 4 -1.</_>
        <_>
          14 8 6 4 3.</_></rects>
      <tilted>0</tilted></_>
    <_>
      <rects>
        <_>
          8 16 8 5 -1.</_>
        <_>
          12 16 4 5 2.</_></rects>
      <tilted>0</tilted></_>
    <_>
      <rects>
        <_>
          9 15 18 9 -1.</_>
        <_>
          18 15 9 9 2.</_></rects>
      <tilted>0</tilted></_>
    <_>
      <rects>
        <_>
          9 20 8 6 -1.</_>
        <_>
          9 22 8 2 3.</_></rects>
      <tilted>0</tilted></_>
    <_>
      <rects>
        <_>
          9 21 12 5 -1.</_>
        <_>
          15 21 6 5 2.</_></rects>
      <tilted>0</tilted></_>
    <_>
      <rects>
        <_>
          9 21 18 3 -1.</_>
        <_>
          9 22 18 1 3.</_></rects>
      <tilted>0</tilted></_>
    <_>
      <rects>
        <_>
          10 9 7 3 -1.</_>
        <_>
          10 10 7 1 3.</_></rects>
      <tilted>0</tilted></_>
    <_>
      <rects>
        <_>
          10 22 9 4 -1.</_>
        <_>
          13 22 3 4 3.</_></rects>
      <tilted>0</tilted></_>
    <_>
      <rects>
        <_>
          11 12 8 12 -1.</_>
        <_>
          11 18 8 6 2.</_></rects>
      <tilted>0</tilted></_>
    <_>
      <rects>
        <_>
          12 20 3 6 -1.</_>
        <_>
          12 22 3 2 3.</_></rects>
      <tilted>0</tilted></_>
    <_>
      <rects>
        <_>
          13 5 5 12 -1.</_>
        <_>
          13 9 5 4 3.</_></rects>
      <tilted>0</tilted></_>
    <_>
      <rects>
        <_>
          13 6 11 9 -1.</_>
        <_>
          13 9 11 3 3.</_></rects>
      <tilted>0</tilted></_>
    <_>
      <rects>
        <_>
          13 7 9 4 -1.</_>
        <_>
          16 7 3 4 3.</_></rects>
      <tilted>0</tilted></_>
    <_>
      <rects>
        <_>
          13 13 15 12 -1.</_>
        <_>
          13 17 15 4 3.</_></rects>
      <tilted>0</tilted></_>
    <_>
      <rects>
        <_>
          13 14 9 1 -1.</_>
        <_>
          16 14 3 1 3.</_></rects>
      <tilted>0</tilted></_>
    <_>
      <rects>
        <_>
          14 5 7 20 -1.</_>
        <_>
          14 15 7 10 2.</_></rects>
      <tilted>0</tilted></_>
    <_>
      <rects>
        <_>
          14 9 12 6 -1.</_>
        <_>
          14 9 6 3 2.</_>
        <_>
          20 12 6 3 2.</_></rects>
      <tilted>0</tilted></_>
    <_>
      <rects>
        <_>
          14 17 5 8 -1.</_>
        <_>
          14 21 5 4 2.</_></rects>
      <tilted>0</tilted></_>
    <_>
      <rects>
        <_>
          14 22 5 6 -1.</_>
        <_>
          14 25 5 3 2.</_></rects>
      <tilted>0</tilted></_>
    <_>
      <rects>
        <_>
          15 9 6 20 -1.</_>
        <_>
          15 19 6 10 2.</_></rects>
      <tilted>0</tilted></_>
    <_>
      <rects>
        <_>
          15 12 7 9 -1.</_>
        <_>
          15 15 7 3 3.</_></rects>
      <tilted>0</tilted></_>
    <_>
      <rects>
        <_>
          15 17 10 8 -1.</_>
        <_>
          15 17 5 4 2.</_>
        <_>
          20 21 5 4 2.</_></rects>
      <tilted>0</tilted></_>
    <_>
      <rects>
        <_>
          15 23 3 4 -1.</_>
        <_>
          16 23 1 4 3.</_></rects>
      <tilted>0</tilted></_>
    <_>
      <rects>
        <_>
          15 24 3 1 -1.</_>
        <_>
          16 24 1 1 3.</_></rects>
      <tilted>0</tilted></_>
    <_>
      <rects>
        <_>
          16 7 16 4 -1.</_>
        <_>
          16 7 8 2 2.</_>
        <_>
          24 9 8 2 2.</_></rects>
      <tilted>0</tilted></_>
    <_>
      <rects>
        <_>
          16 8 14 2 -1.</_>
        <_>
          16 8 7 1 2.</_>
        <_>
          23 9 7 1 2.</_></rects>
      <tilted>0</tilted></_>
    <_>
      <rects>
        <_>
          16 13 2 16 -1.</_>
        <_>
          16 13 1 8 2.</_>
        <_>
          17 21 1 8 2.</_></rects>
      <tilted>0</tilted></_>
    <_>
      <rects>
        <_>
          16 13 5 4 -1.</_>
        <_>
          16 15 5 2 2.</_></rects>
      <tilted>0</tilted></_>
    <_>
      <rects>
        <_>
          17 16 12 2 -1.</_>
        <_>
          17 17 12 1 2.</_></rects>
      <tilted>0</tilted></_>
    <_>
      <rects>
        <_>
          17 20 4 6 -1.</_>
        <_>
          17 22 4 2 3.</_></rects>
      <tilted>0</tilted></_>
    <_>
      <rects>
        <_>
          17 22 6 4 -1.</_>
        <_>
          17 24 6 2 2.</_></rects>
      <tilted>0</tilted></_>
    <_>
      <rects>
        <_>
          18 11 10 10 -1.</_>
        <_>
          18 11 5 5 2.</_>
        <_>
          23 16 5 5 2.</_></rects>
      <tilted>0</tilted></_>
    <_>
      <rects>
        <_>
          18 15 12 4 -1.</_>
        <_>
          18 15 6 2 2.</_>
        <_>
          24 17 6 2 2.</_></rects>
      <tilted>0</tilted></_>
    <_>
      <rects>
        <_>
          18 19 5 3 -1.</_>
        <_>
          18 20 5 1 3.</_></rects>
      <tilted>0</tilted></_>
    <_>
      <rects>
        <_>
          19 13 2 6 -1.</_>
        <_>
          19 15 2 2 3.</_></rects>
      <tilted>0</tilted></_>
    <_>
      <rects>
        <_>
          19 24 4 2 -1.</_>
        <_>
          19 24 2 1 2.</_>
        <_>
          21 25 2 1 2.</_></rects>
      <tilted>0</tilted></_>
    <_>
      <rects>
        <_>
          20 23 6 2 -1.</_>
        <_>
          20 23 3 1 2.</_>
        <_>
          23 24 3 1 2.</_></rects>
      <tilted>0</tilted></_>
    <_>
      <rects>
        <_>
          21 12 4 6 -1.</_>
        <_>
          21 15 4 3 2.</_></rects>
      <tilted>0</tilted></_>
    <_>
      <rects>
        <_>
          21 15 3 12 -1.</_>
        <_>
          21 19 3 4 3.</_></rects>
      <tilted>0</tilted></_>
    <_>
      <rects>
        <_>
          22 10 3 16 -1.</_>
        <_>
          22 18 3 8 2.</_></rects>
      <tilted>0</tilted></_>
    <_>
      <rects>
        <_>
          22 10 4 9 -1.</_>
        <_>
          22 13 4 3 3.</_></rects>
      <tilted>0</tilted></_>
    <_>
      <rects>
        <_>
          24 13 2 4 -1.</_>
        <_>
          25 13 1 4 2.</_></rects>
      <tilted>0</tilted></_>
    <_>
      <rects>
        <_>
          24 18 2 2 -1.</_>
        <_>
          25 18 1 2 2.</_></rects>
      <tilted>0</tilted></_></features></cascade>
</opencv_storage>
